function [Y,Xf,Af] = myNeuralNetworkFunction_MakeMouse(X,~,~)
%MYNEURALNETWORKFUNCTION neural network simulation function.
%
% Generated by Neural Network Toolbox function genFunction, 16-Dec-2017 23:00:05.
%
% [Y] = myNeuralNetworkFunction(X,~,~) takes these arguments:
%
%   X = 1xTS cell, 1 inputs over TS timesteps
%   Each X{1,ts} = 129xQ matrix, input #1 at timestep ts.
%
% and returns:
%   Y = 1xTS cell of 1 outputs over TS timesteps.
%   Each Y{1,ts} = 129xQ matrix, output #1 at timestep ts.
%
% where Q is number of samples (or series) and TS is the number of timesteps.

%#ok<*RPMT0>

% ===== NEURAL NETWORK CONSTANTS =====

% Input 1
x1_step1.xoffset = [0.327715355805243;0.325966850828729;0.24;0.294117647058824;0.302631578947368;0.302895322939866;0.236714975845411;0.24907063197026;0.253968253968254;0.260416666666667;0.301724137931034;0.335403726708075;0.3710407239819;0.390804597701149;0.37280701754386;0.375;0.375579598145286;0.35978835978836;0.366666666666667;0.371428571428571;0.377073906485671;0.380368098159509;0.384;0.388429752066116;0.397058823529412;0.431266846361186;0.443014705882353;0.434628975265018;0.435700575815739;0.398897058823529;0.383534136546185;0.364055299539171;0.365413533834587;0.375478927203065;0.367952522255193;0.373660030627871;0.368253968253968;0.36517719568567;0.362670713201821;0.365079365079365;0.367762128325509;0.371248025276461;0.373056994818653;0.0882352941176471;0.216666666666667;0.234042553191489;0.255172413793103;0.275862068965517;0.256410256410256;0.235294117647059;0;0.25;0.284615384615385;0.293706293706294;0.298850574712644;0.293233082706767;0.25;0.145833333333333;0;0;0;0;0;0.173913043478261;0.0476190476190476;0;0;0.111111111111111;0.220779220779221;0.171875;0.037037037037037;0;0.0681818181818182;0.1875;0.172413793103448;0.263157894736842;0.260355029585799;0.2578125;0.277777777777778;0.266129032258065;0.269736842105263;0.271523178807947;0.275862068965517;0.267156862745098;0.258145363408521;0.265446224256293;0;0.0555555555555556;0.0149253731343284;0;0;0;0;0;0.118881118881119;0.00625;0.0503597122302158;0.109826589595376;0.112299465240642;0;0;0;0;0;0;0;0;0;0;0;0;0;0;0;0;0;0;0;0.0555555555555556;0.0899470899470899;0.1;0.087719298245614;0.115942028985507;0.083969465648855;0.111111111111111;0.089171974522293;0.075;0.0930232558139535;0.096045197740113];
x1_step1.gain = [3.42436816295737;7.21480544131604;4.79942693409742;4.90184049079755;5.76835879743716;6.06732060726932;4.87396121883657;2.66336633663366;5.85856401384083;4.48598130841122;6.16950449588674;7.97438087105039;10.7903817914831;5.568;4.15489749430524;3.2;3.2029702970297;3.12396694214876;3.15789473684211;3.18181818181818;4.45421352417117;3.49642492339122;3.24675324675325;3.27027027027027;4.06644518272425;5.74788732394366;5.19331742243437;3.78548427049789;3.54421768707483;3.75290059579806;5.13883677298311;4.31470689064107;7.31327325492592;7.94470461095101;9.94960549758208;8.32033083715212;8.68693199623943;7.66938793919985;8.82093786011878;8.11735740664752;7.96851252874011;8.78776383227734;8.85688358828105;5.43618513323983;10.6849315068493;18.8755020080321;20.1818499737716;19.3333333333333;13.3475935828877;13.887323943662;5.42011834319527;16.0349344978166;24.0008335069806;33.7638888888889;28.4170854271357;27.9715519431039;20.1156069364162;9.99309324124322;5.83333333333333;5.625;4.96969696969697;5.14285714285714;5.35;10.5865580448065;6.234375;5.69230769230769;5.75652173913044;8.49375;13.8806333739342;10.9251844046365;6.34327449786975;5.71604938271605;6.92134831460674;11.6965517241379;11.5393992163692;23.9675036927622;23.460894251242;21.9595882577202;28.1658031088083;23.9785138764548;24.9911231184871;25.1907403864549;26.6897274633124;24.6125290023202;21.7464454976303;23.2294191919192;5.53367875647668;6.62868769074263;4.41345480028031;5.25;5.58333333333333;5.6125;5.08333333333333;5.02803738317757;7.12784334410233;5;6.1335193051417;8.40337909186906;10.3154172560113;6.91390728476821;6.59259259259259;6.43010752688172;6.53535353535354;6.09677419354839;6.10169491525424;6.14035087719298;6.33962264150943;6.38461538461538;6.44897959183673;6.66666666666667;6.72;7.33333333333333;8.03076923076923;7.80689655172414;7.89393939393939;7.23456790123457;6.10526315789474;6.11881188118812;7.68539325842696;8.84388866478418;9.06976744186046;8.44946492271106;9.42226890756303;8.229956122856;9.16692426584235;8.33604862195585;7.89168278529981;8.59138708062093;8.81346749226006];
x1_step1.ymin = -1;

% Layer 1
b1 = [-0.90794118991157802;0.70523705861494046;-0.59724101163761045;0.5369133162441343;-0.14871605630149856;-0.078211468518908617;-0.35309127943117224;0.595458554739695;-0.92323433655007148;-1.1348716992045256];
IW1_1 = [-0.10884948894982933 -0.097545249760126476 0.070625846184439539 0.0050583527889447137 0.076816182753883619 -0.059024638289126845 0.20949503437908307 -0.10931299927411506 0.089058003696159987 0.085287838006149919 -0.036964687961569903 0.088961626916644776 -0.10761966078996744 0.15892399913201075 0.12372199073228053 -0.34418949043828401 0.14185472038769653 -0.12297250699079558 -0.034475995631889356 -0.10871493902636817 0.14718348959624655 -0.012634901817475579 0.14195109034318812 -0.23192047680887409 -0.086850348518251422 -0.015486543025141242 -0.21037877063841984 -0.023558960092504262 -0.12960825153472036 -0.11626212987263426 0.19118869456042747 0.13786059720681693 -0.001321662562336838 0.13825999960554713 0.024597416394536085 -0.08625840464825571 -0.084792942357408557 0.0296286689083551 -0.014588301225529052 -0.060378691270554133 0.10264369286200353 0.085971441465117635 0.059601127300560615 -0.11122777000741012 0.0089690628338226549 -0.084993887194093731 0.087781115698824283 -0.00035811297055479696 -0.2207026810503534 0.23369857093561594 0.005158155727555 0.1839752794429057 -0.1317706463505241 -0.014191271952796129 -0.070288660713813692 0.065622664223351626 0.091428224472869565 -0.090250961908672517 -0.0075904587505594458 0.13043027248995412 0.17011318333744918 -0.088030855791812246 -0.12261965278764615 -0.15034163146849322 -0.008655624084748733 0.012750268571908597 0.051492587526043104 0.050426122713060968 -0.085279273092379038 -0.087459906662936404 0.04357272207301896 0.11776675797518549 -0.079520399003892281 -0.22955466897518551 0.28030014968112343 -0.13765677094345272 0.15457821065439256 -0.018046848420200684 0.033091693453510783 -0.067991737872372698 -0.087647986049502274 -0.024318565426997341 -0.021738073098265236 -0.036941145610557884 0.20285434432742563 0.10513799775286282 -0.12016104022453225 0.021894967812358428 0.068193759773141155 0.045309378930070913 -0.05354713259448763 0.044951133376553279 0.14295009891974886 -0.13022127685474169 0.014071368089795297 0.11534086092822354 -0.061767387535574148 0.12150500261205076 -0.16774626575703283 -0.046116434385082929 -0.019830981299779411 -0.077375531352082472 0.11842230549475481 -0.12106552186136881 -0.12900946939018823 0.16528341363622673 -0.007153748048288425 0.023874648776935382 -0.088886473723390397 -0.15894596657071305 -0.19698505397009763 0.019708411827897187 -0.024232525567158787 -0.041258643624241975 -0.063884296431496568 -0.014188520182831343 0.0774802745281125 0.1832340525462311 0.091457364691013024 -0.0088500406777006005 0.014744160803550177 0.03753438176980943 -0.084433303630218642 0.061282168963885483 0.012458864505061402 -0.017268735981532779 0.022011249401026188 0.025042253914562645 -0.031196733992050876;-0.034004233513005591 -0.096084913229908683 -0.039168365521631138 -0.00079322662610777778 -0.11830763041871688 0.10612632509209094 -0.09654551268586678 -0.024009945742537987 0.18094666944997037 0.19512021724918324 -0.0077425748664967757 -0.068442874326754027 0.05117575661682635 0.069109526523949014 -0.18808871053500392 0.017614374773134329 0.061133210415712735 -0.15642274746882789 0.23141788083564546 -0.044244080647411387 0.12925491289108546 0.063208395451027771 -0.067083980766309073 -0.22392341128627366 0.10150240485937774 0.18910266083084989 -0.0037457175389059745 0.094302708651865241 0.12527117136452215 0.13486574521942116 -0.098929290647219406 0.24998916891319328 -0.08668359840500392 0.046674694520377591 0.05313227553991838 0.10989509144934714 0.18337011458724206 0.024686729388458385 -0.14509361424016665 0.19529391299672022 0.15540947871268285 -0.10093457961129551 0.15445107396259544 -0.031539485442074883 0.033949681272549742 -0.0043449893741181814 0.0038377951626224682 0.00056343058557643821 0.12106801206516145 -0.021430212814719036 -0.14883470189469278 -0.021622541723731216 0.11252513840003792 0.068226311361670192 0.16200160517274856 -0.017231366368625423 -0.23410787267592875 -0.19287126790429729 -0.24197838126240376 0.046217515263404577 0.092904862837619312 0.16141922841182166 0.11014771249678902 0.083348425154266728 -0.080996672102102929 0.049533429265475666 -0.18941318369305579 -0.025957160315842699 -0.0094162798289188984 0.12081043203287939 -0.049600311606026473 -0.0027127515134136703 -0.0087375770324153064 -0.074651786473695275 0.16891641746689098 0.1309280077112612 -0.049307863060082086 -0.052996854896057391 -0.034998650602784342 0.10377178938937251 0.1228141043521449 -0.1032281234235464 -0.061914014108472512 0.16029272814663134 -0.092847740872269172 0.018550880740263551 0.026891626066993503 -0.19331203057244606 0.11556911794631587 -0.15148368546981791 0.08190318148126606 -0.0084914596175840688 -0.014769667214917355 0.0034095451320675391 0.18812933694602199 -0.141596076170036 0.091327202601345664 0.027119183351546908 -0.14019369871749984 0.032455005938700751 -0.00065672307815851233 0.011710621106523553 -0.0066011817997830144 0.10783072087156088 0.18401604443095276 -0.016490383836463174 0.044268370306430715 0.03826944703132916 -0.14600641239336204 0.089534692985741127 0.15109360868744265 0.12978880229595835 -0.10145963217983145 0.094627934497349825 0.036926638061603137 0.13073195415375871 0.035747727054050292 0.061376041314828184 -0.10438706495089004 0.17579039255250317 -0.091924579791204261 0.11918587946710574 0.046538073923013665 0.087735408841380494 -0.011256322543319703 0.044430438193744107 0.15930144525990533 0.06107566598532975 0.017273795384705328;-0.007524821924273865 0.0018526560466782718 0.13493985032314532 -0.047227667962941526 0.16503794990277632 0.085174826747917154 0.11888647963884921 -0.099653341392544503 0.092293378857183458 -0.093137406423895883 -0.13251791286406692 0.09818603780161253 -0.12437728899219991 0.024318119597501395 -0.16893794290734671 -0.14356815670783146 -0.12363311198404378 -0.059294417121596575 0.16611112586594687 -0.20031857533581476 -0.15316808419634581 -0.10927110429849131 -0.17062726928481908 0.10462739697042883 -0.097012063439240126 0.24004380011084667 -0.062276170205927704 -0.036495342099153338 -0.036363992965386775 0.044050089362791763 -0.037840860799251454 -0.050479235101685574 -0.078857205916983406 0.065985474321494222 0.045004268666750655 0.11324960994087045 -0.033832320815619529 -0.13862924140023825 0.10059619654079152 -0.075689515156717083 -0.0051587682155737049 -0.01109421720495332 -0.12881378532419235 -0.055990574432271754 -0.14867949288106763 0.1221525280486771 0.0091081514048832642 0.045650348844320024 -0.21301583474754063 -0.11404188544008749 0.22311204032963633 0.060633920347878234 0.039111505329671004 0.00085231853047020218 -0.019569987424583515 -0.12027362301990091 -0.018293880116626603 0.029540638686500788 0.029934080926731606 -0.16582426981167428 -0.093150268934082181 -0.029653393602478754 -0.069385615358456068 -0.038091883333155614 -0.11004026272109446 -0.07346872726465796 0.046417179361023395 0.17508301232091675 0.036233335268180678 0.12419760714154784 -0.080538154244691434 0.041867814412115865 -0.034285157667259647 -0.028646197457844743 -0.054470504045386586 -0.026016727223303688 -0.007459714324865873 0.045341308640158971 -0.15877614179439464 0.056185477279426688 0.021911555366786635 0.080729693130528982 -0.17662865652665613 0.16262782087888727 -0.18157902750176713 -0.074752743646588418 0.077800092906513379 -0.078782770943127217 0.22890497610014732 0.12021486136759929 0.015007462328123847 -0.085333462016439404 0.067501103031307741 0.081902449711523634 0.056361194883355073 0.014843476658813588 -0.16092523018735497 -0.084842284896302675 -0.052019401848000829 -0.0037717146425038511 -0.031247607024131051 -0.017833985216213932 -0.16374474739745412 0.16280166387854128 -0.066997737210849409 -0.0061480544057915089 -0.097314542349468763 -0.11932266752673328 0.048312376687317686 -0.018996550959591886 -0.040360700804527735 0.065647142306165474 0.068098778222836762 0.043978237846239693 -0.082028277242954611 -0.065280026780376504 0.083462980541648413 -0.1189341560795029 -0.098906307342431443 0.045230655930606406 -0.064834611124966537 -0.01781134959759377 0.086646035594236143 -0.091744312325544655 0.00073809807574905587 0.17903972218482389 -0.15374457261420196 0.069485538004359068 -0.15689029438801028;-0.17644066088109345 0.084886262956208394 -0.026875919420633235 0.17863293116759818 -0.0037383945437130094 0.063081283562357107 0.10321402003860985 0.17072979166302105 0.20142842256831678 0.16458512268896086 -0.22954068107209499 0.0065111462161832655 0.13379674543553513 0.17400055821166041 0.062613695362096988 0.041897674029997709 0.067771371706738637 -0.16574255725396736 -0.072799430026152565 -0.025808120384618473 -0.10990414399860013 -0.20390131087509653 0.17795694709251994 0.11186198519830268 -0.066321040791586849 0.00025488332038708927 0.11545507114006789 -0.052572449352165103 -0.10819951962634952 -0.0084549131458509404 -0.12149325433914802 0.086647547519505666 -0.041767638648977298 0.12897067436343457 0.014739606352938806 -0.094196354871674604 0.12685009153745014 0.065083302905386831 -0.062692825166376726 0.098581667186906488 0.031272352768435645 -0.056965630065512814 0.12451799533876737 -0.049058339747855326 -0.019822965520361949 0.050040803985076356 -0.088603503840117212 0.061294151672221374 0.18673571173774572 -0.13451055914686161 0.10060721608066543 0.16909554619556791 -0.14330074675616153 0.053646120948993695 0.090921153862647361 -0.033100182666855327 0.043311663936771508 0.083533641387218846 -0.05771944716755685 0.014462478467741702 -0.17865581048494014 0.084453522090873465 -0.066008575057209695 0.096479553801607276 -0.043718338940389151 -0.058494402845207981 0.094968506233582134 0.020898781873868802 -0.051684203015533406 0.0090651055077161351 -0.069938340292505702 -0.16199153202829875 -0.13315871180533354 0.07525751096812193 -0.015944932006228811 0.023140573129575466 0.059309753335342164 -0.16150647184258513 0.06855975882099602 0.088397819575917108 0.04117782225917805 0.037750598817315864 -0.03658677525636294 0.047968092033560936 -0.13591142189530617 -0.0097613534082311507 0.050589924388320398 -0.13508991087403951 0.14278798494211792 0.077859849588786029 -0.095114256085663873 0.092667892033397342 0.064367969322988258 -0.086405643538209051 -0.023118261262642353 0.075370927867005735 0.16533999371329386 -0.087634960253021532 0.11144087056822859 0.17708593460167954 -0.088187152355230891 0.12400774280528187 0.021754474713016038 0.021223652382766113 0.027884330881419398 0.0048512187108312628 -0.058549005008680786 -0.14559627198775421 0.16324804408010996 0.032423522405327157 0.091773889947467213 -0.12278069151656884 0.0030423243170530079 0.16727107669138783 -0.019117809119200933 0.017408129545946938 0.15307803669684805 -0.20377024730264356 0.054485578081521428 0.089579959405510806 0.0089324286895361878 -0.094104022526251455 -0.05899065295285081 -0.066842484713078798 0.15459956156428636 0.0022813066207066132 0.11373961200421157 -0.14576794712392679 0.1095647281717194;0.10924447175398797 0.089283521838701599 -0.15438966271195154 0.080217928723297374 -0.088512635711986948 0.13190558453520684 0.044648013404575651 0.12216346032006012 0.043206469086376854 0.065199935174080653 -0.012045804961252779 -0.13700698690016055 -0.026426505875696726 -0.10828087990710195 -0.1127586864370564 0.11035035976906205 -0.10665944813590059 -0.23712412461097271 0.12867197896811602 0.031478715689597807 0.10205495854422374 -0.10283017615755105 0.12049715889876501 0.040309883411076934 -0.044815679024763071 -0.11358775748569717 -0.10933150779131914 -0.1422952672784574 0.070789087416282176 0.046474797993338479 0.1368369467629417 -0.080360486053442648 -0.056466460243241895 -0.012923029206510468 0.077119130703833777 -0.10619597664863399 0.12279935119612867 -0.069416694318305522 -0.081812215434214769 -0.086544407038908186 0.065904096469821968 0.16359509857455154 -0.16008817558226748 0.1391457119630081 -0.14440094507864909 0.058143724317241754 -0.018351421349053557 -0.063955382571462827 -0.014963531009968761 0.12138462273103777 0.024538138229775758 -0.081942280805976042 0.022109318428676306 -0.044769886791636238 -0.045266411587604069 0.14373905133974074 -0.20570938945983691 -0.068866596523984983 -0.03558759626161468 0.093599153250617392 0.2116786352153005 -0.050686019533945081 -0.11166990719090805 -0.1923168008759035 0.09377281355721058 0.031925808624437585 -0.11418036712860075 -0.080999335946935494 -0.018565941652274497 0.17838836779545622 -0.16122161037636565 -0.0043443536862652413 0.061024230244483932 -0.077522797531733856 -0.014148641187422709 0.05105481763151655 0.10725454640413018 -0.052765450786655274 0.033914923967297284 -0.054156846038736856 -0.075214103271180888 0.0033800369667657468 -0.11919662849006964 0.15124558634569796 -0.12685403823142086 0.020910428840103128 0.040725309935537773 0.031587483066820105 -0.10411282610013524 -0.0090258382735374718 -0.10340020531725326 -0.034379547732470692 0.033894788097640349 0.10552104794055264 0.028115529513377466 0.14524969150599631 -0.15037573975268709 -0.12722248372947803 -0.036997433036217442 0.012781241005451683 -0.13828571103557685 0.019655417257914445 0.058565644394646683 0.065995193619083584 -0.051208900329219667 -0.03197696658847074 0.077084703007654243 -0.16641469861063987 0.10304793291406251 -0.0099678680703071901 -0.057986613964773184 -0.11225442094075634 -0.11504741212772596 -0.18530583256707001 -0.023433065989012319 0.045084719600359785 0.16134540290309402 0.0084002845327524091 -0.061981793080916989 0.0088815751733150039 0.034280510140462357 -0.096574394975338235 0.070032940090106577 0.025828234524140917 -0.066062708373154602 -0.022562040648440102 0.096305852591633809 0.0913014145962327 -0.17467396971938046;-0.030326986518233158 0.095418704545656902 0.038949003205362341 -0.039101576545203687 -0.090591810106799245 -0.21478785982291604 0.092893173879410956 0.011037409656221481 -0.14129267836441559 -0.15240250525370497 -0.0086598067067997185 0.14255289852810651 -0.064466205289149606 -0.073156719873907844 -0.082731041140091763 0.083989579363534142 0.047910506272234296 0.016242233747225037 0.10093582430750586 -0.033450091445530669 0.0077419265271277838 -0.023277848931093276 -0.074235929212342983 -0.040194824946898633 0.11319963462868575 -0.0049761414674816496 -0.20015515890302737 -0.050366447793557367 -0.066387007164409331 0.017558767932410596 -0.19533675707145889 -0.053193415186096236 -0.0017741870023309857 0.017959691750106477 -0.0075794792378991276 0.045376348234093859 0.081211226740538905 -0.1846890337313172 0.065839817640648335 0.01222435242853011 0.060043167620801127 -0.070552516861027703 -0.0010599534425384768 -0.19551276134118822 0.051660346251219132 0.048648088432894504 -0.040404063124413428 -0.023051100663042681 0.036657562969078808 -0.1404549602437502 0.17107225321488717 0.021497843222803334 0.085862078079769796 -0.10385045432562424 -0.095515295206820477 0.090295099247960683 0.022663287718461596 -0.1631002629621946 0.13855399500624818 -0.15746747779142006 0.14815426947445379 0.12349065192752057 -0.12560630254743524 0.07966263651425029 0.17109238551621603 -0.26019141575856858 -0.097730581369042932 0.079326042101402053 -0.13026720764659983 0.025697504995197157 0.23588000260716688 0.013640778452180568 -0.03662727253368267 -0.09195488339560895 -0.098114341219710369 -0.064057455893023113 -0.074593769757022477 0.089268543925806743 0.1278515718780632 0.0014962997709496578 -0.079157276246899042 -0.033353487840086689 -0.03652491113981611 0.081940115662085283 -0.085706418287289199 0.063844832928956541 0.15809856212742932 -0.062664819692120635 0.15043895202613031 -0.16083844045726714 -0.16334497556941571 -0.14401227298268157 0.037039508906294802 -0.070010143930176377 -0.19482180635146368 0.021964314662726608 0.056984356342050131 -0.16004055894967473 0.017997125520286972 -0.094673249192333747 -0.038843577289677841 0.075458810930796094 0.12268977406228578 -0.13808743836034026 0.032126057575403849 -0.17945697005675204 0.024681757332913432 -0.004721077348817819 0.12328673832628742 -0.035304434558779331 0.16283153532674235 -0.030468805442639604 -0.18919040722388542 0.027313245156646276 0.023767515517557916 -0.010445473727887851 -0.11838008025088932 -0.017615848821129286 0.12865327364460064 -0.072203615760765796 -0.027641452732505296 0.061051190230973898 -0.027391485816642781 0.01128791543791814 -0.045227388182446968 0.13208622670669345 -0.11370190894202269 0.032290714594810761 -0.018438816222101997;-0.049014469972674994 0.090996730973464779 0.053797959374274965 -0.20971479792125999 -0.18672740307681546 0.03849869113727402 -0.089424719066063418 -0.049369198127281605 0.16667923210009974 0.16421488995785138 -0.07430408733595123 -0.11613421470262859 0.011892941274709742 0.023126666177397882 0.10950258447714116 -0.018670609444505767 -0.038381216884314492 -0.12103370928642061 0.091766907267574027 -0.06050583269243965 0.20814703569156059 0.01295914882070609 0.18362856590717552 0.13681286009074328 -0.15123064544227835 -0.034293899497989153 -0.002520829672346488 0.071554473761934551 0.11322608861374991 -0.050765369367958918 0.10431478668233155 -0.051684374988092849 -0.034575076909391406 -0.13800065201116662 -0.012572674642036409 -0.049802576710247515 -0.15124390093706419 0.042171568187620537 0.027306599820659944 0.034200038669235044 0.061424229475467197 0.078802758328556197 -0.24257983725225482 0.042671928196903408 -0.011476877858743621 0.15920731043898556 -0.14248149870928778 -0.18486812785644263 0.11258122981390953 -0.19495131245643466 0.077171927765887077 -0.11019679310093579 0.063678403412128146 0.10225833716166427 -0.05187386321400151 -0.041840897713766513 0.11303549171427095 0.26592952781003715 0.013419645212059749 0.13319734602867453 -0.15168305832222173 -0.16579599774348461 0.042197315161567384 0.0085363449645375657 0.20440356652426317 0.10726404991059019 -0.037621604707603534 0.047602263744531609 0.16546275230234062 -0.18522883239139637 0.14326536300850265 0.018408811000524421 0.085742876955268374 -0.059068074803091265 0.18734923444515561 0.016755581784027251 0.080601528138080872 0.016485125567137267 -0.21261373282889123 0.051647121575664201 0.07477718752078015 -0.25289918495190172 0.16235540504549398 -0.11773633176475919 -0.095324746663660823 0.099990153480143701 0.089912834491861104 -0.091662362841203701 0.0093271171462471388 -0.045704159894998271 -0.076679491700037392 -0.016543289576599396 -0.075383307387406992 0.032381747524472336 0.12552773522957572 0.16702825999855705 -0.13539121613831695 -0.0069092532525725989 0.14183609070725961 -0.13719271065633562 -0.10298581561630128 0.06848220299736775 -0.13530103815360439 0.19797629890018981 -0.051860697988183463 0.22039017623589982 -0.10314300482091074 -0.014692464142320935 0.17143973462383424 0.044085723287099463 -0.24980073238298037 -0.070701673263789691 0.1080322680304332 0.028015728038075643 -0.056326541586575671 0.028160561036436039 0.070240793072909188 -0.10177629894420751 0.016409202035754078 -0.097543215141578501 -0.047996686956985307 -0.068086681976773256 -0.15470605104475893 0.083375200992813911 -0.042789195727773593 0.044012825218256009 0.01565537704461871 0.10982095248926994 -0.14779872393118074;0.12846487965030037 -0.066367327587996003 -0.023035781462596133 -0.050004556208107946 -0.28678891767272163 -0.010401178434803 -0.0022471579466454006 0.10675263222822974 -0.20909559361581112 0.0057242922348439643 -0.08388346401783317 0.025601909110815082 0.10058197348375597 0.034474691650046504 0.21020028032495797 0.35280398836133459 -0.084031178015637614 -0.017452241813453579 0.062376654854819691 -0.020068581813079411 0.11563358446894566 0.20038022348370996 0.016397319925943749 -0.17947705357588123 0.03475908503587704 0.1326273120502536 -0.063791402915972364 0.090921806713576678 0.11847970938342003 0.1497827127908932 0.088033560524768684 -0.069257659406360625 -0.10876192899100399 -0.11029537079115895 -0.051269490601936502 -0.087229401181828412 0.14726261444007413 -0.024403996484266995 0.14767731178161606 0.04308362853655081 0.036059961230212947 0.016469674213815431 0.18161669501140304 -0.11282609379720131 0.17723793403117374 -0.049475990006416178 0.070531276506472174 -0.12790276159196828 0.17743517795920211 -0.034164973018459707 -0.18374415003571265 0.058046091257953847 0.0031732825161685414 0.12836515949547861 0.012462233511460044 -0.074495492558260337 -0.12000367961765138 0.015094550153431887 0.027461422810512649 0.12068549848983781 -0.035266486107013259 0.023198592254644712 0.066911307261162678 0.097968483388079508 -0.15871357885863427 0.099678296709458075 -0.089608269576201743 0.16492554008011479 0.038904367976161223 -0.028995695012819983 -0.12148996051943346 0.060855093048784892 0.042083246974613978 0.13096368394290153 -0.063878916691136545 0.019751906871889394 -0.12735251124859714 -0.027814450112383701 -0.055047977161734415 0.1300423418006921 0.17906478629142025 -0.051865415889356392 0.020691706211180466 0.05903927646278391 -0.060032611274478453 -0.031714960230078457 0.22922526512595287 -0.16172840776767239 -0.090113537773403002 -0.077083029356896204 -0.13969933164885653 -0.16762189447894185 0.039214397893174671 0.10363124273054811 -0.12680426357265906 -0.12272311579557442 -0.051449734084655287 0.071805356013182497 0.10089839141277029 0.10956727100740452 0.15456008766947371 0.12888743873810202 -0.17015301308429887 0.090015028796019941 0.02084376233937732 0.036775781065776857 -0.059760459430686648 0.11077399600158418 0.21819776483453435 -0.11897300796550761 -0.045415257244192694 0.10182053309507713 -0.12224147699209315 0.14272661798121158 0.06113776326179441 0.16596638317516743 0.025022698710949705 -0.092522438035109053 -0.18933641064858145 0.038295904928713424 0.034559074416888262 -0.21003838761309135 0.045578974510258677 -0.066456875551276426 0.064150275806227522 0.072428679652769459 0.10079492973988474 0.12280352959434684 0.17415554003301412;-0.083743098038652486 0.12185053959695762 -0.1444970279111801 0.070072669379623267 0.12962787622642002 0.11019000411455089 0.048077910487951639 0.13505494783498886 -0.088505069358822228 -0.03832491126163784 0.10373525697809151 -0.17040821213458213 -0.10249490229041681 0.026708482187593207 0.16475341727705356 -0.15726280646808161 0.21558199587744878 0.01063932359258668 0.08961300561521264 -0.060571407457381536 -0.14620662827964517 -0.17139056725223187 -0.071808193133849174 0.14672467699741878 -0.1117753150488129 0.076584794469687995 -0.10746175972116211 -0.11045612818781529 0.017355617707423495 0.13623623536171031 -0.1281631801201252 -0.095317543840150884 -0.14794104357601853 0.10169671499401892 0.027500324866859147 -0.15934072559614251 0.036047768827910616 -0.056293590880834431 0.15497808771415775 -0.088093665116000738 -0.12408392373686036 0.1449854821457803 -0.1239892140135464 -0.07330204557395445 -0.080902075526878489 0.0006083394081618787 -0.055776241723190859 -0.0073033958723740348 -0.083408888137566223 0.19686273017150091 -0.048679782950057912 0.030713862232376869 -0.18480854458633139 0.044673085734031059 -0.046194127242416921 -0.10747385964489373 0.11352942888522337 0.050283989914342714 0.18058024272823023 0.2013577467442097 -0.045097805940937596 0.062329930857350259 -0.11681724854430871 -0.12405021427701629 0.042561881481686069 -0.0025404555569391619 0.071696249964719128 0.081523704593017124 -0.16608246908367819 0.031605155526483714 0.15825408242543593 0.11380522746504007 -0.083833952494720448 -0.030884334535935799 0.054592335881085523 -0.13672728063126713 -0.020169071113996694 0.05661577836348744 0.064042201018992245 -0.11786472297739571 -0.13240896188476461 0.21202719157962024 -0.034025640328727451 0.064921244001343581 -0.21026044700792743 0.12655251714171306 -0.10935404612790539 0.14577441515696088 -0.073087516191350649 0.060195750646142847 0.083803619406846802 0.103492091641888 0.096230505689917603 0.10960649959375646 -0.032628902564030504 0.025863669124435631 -0.094119270947784661 -0.09290543293727746 -0.081114526197753209 -0.17334648282977139 0.1444482208685165 -0.072322530218553144 0.16164469921132904 -0.12265166298359689 -0.16867189821466283 -0.00026689122143513412 -0.024679898408712979 -0.14788431465506527 0.13291307309969794 -0.13121855905932392 -0.075334274563866321 0.0054414225700096432 -0.013119083136623735 -0.051134238932412458 0.068039618660674317 -0.011358358251849776 -0.048133450089420125 -0.013150436348147077 -0.17014511910045874 0.18399354016952535 -0.25894046980198293 0.026363571541592211 0.13631552356247786 0.01172757482827342 0.076937098210080768 0.030646812200598075 -0.069721190089125029 -0.092257942105647972 0.016305306015378433;-0.16608972112370621 0.202144729550676 -0.055518706238988677 -0.10964513206900663 0.06359686835171309 -0.01661807077679046 -0.13594290233156239 -0.15265001491267507 0.023835276813857671 -0.18000247924023213 0.074542453141791087 -0.093781469309416568 0.039319241695653886 0.076685601687250471 -0.13165386198512091 -0.012370254596544238 -0.083311189919616557 0.17548423251066458 0.070021827062207442 -0.001220158764603756 0.08527251335962388 0.052178551814356058 0.10065688898930764 0.030017325448574834 -0.09850456564430321 -0.090995336032510005 0.028263378518719198 -0.11160499844603297 -0.04888140691257499 0.21680932865614239 -0.03009128303207078 -0.10347927135422752 0.13906333334199272 -0.087632588294610306 -0.040262377250543595 -0.14752655362158812 0.038023534568006848 -0.096700133981774614 0.11103065153151184 -0.29325357912122113 -0.0039950230050739 0.21578907822693333 -0.055561394236624879 -0.013199555040180166 -0.003206318143794868 0.020579769429107567 -0.18424064182818409 0.11707142074126277 0.020055780842631536 0.17668222695769725 -0.044202683876773036 -0.077133238091499981 -0.31140764028564993 0.071588193720577759 -0.078441174053332882 0.047180653274920561 0.075455891169924141 0.10737368381635866 0.1151712395771788 -0.054571433679140247 0.14492874972497663 -0.084472529132704643 0.093881037851496901 -0.14239843700619037 0.010886592391738271 -0.095073985962439392 0.107104412386857 0.10336225830186366 -0.094946527006419243 0.13116937839923154 0.18203803981619518 0.10528798361992205 -0.038583745535477103 0.087854884873448391 -0.079626494097094824 -0.0024931866885235729 0.071099570098410503 0.051890579733887623 -0.056957023652348747 -0.16558661368720717 0.0033087365905159621 0.061148191066589259 -0.011531252947384225 0.036770021893063311 -0.075180687915797725 0.21690634367093883 0.1342990352691491 0.12567222518852542 0.064961330428600444 0.028038756814321844 -0.10933094301931956 -0.020767077359021818 -0.13279171898132297 -0.12585406520153972 0.004544710910319931 -0.072332075059042808 -0.10847636925111148 -0.11984868142659053 0.13912081977845622 -0.066126745330949865 -0.068064342932044261 -0.038481560950504201 0.072346929487938444 -0.10333540247070069 0.11289106707848229 -0.097174506047866094 -0.073473863773480474 0.17542509150230876 0.14787692739227593 -0.13858787223618935 -0.052406124082139065 -0.055761823187264206 -0.12187043998049271 -0.02966323404196558 0.057811849857244295 0.011464887839762385 -0.015622263418418041 0.20590024050727454 0.16266616014762117 -0.15567362584889308 0.047036656307933161 0.099477595356329079 -0.061249805224786728 0.12710230625924254 -0.1387511857116524 -0.12892989404127742 0.020838860414091578 -0.12105308456674638 0.051082438723188489];

% Layer 2
b2 = [-0.196962242005709;0.0067394256698397603;-0.30166437925931711;-0.22941361474022293;-0.25329435353354668;-0.22483026724463415;-0.0094128398491876084;-0.49149069643091414;0.48634017532240786;0.60705589876323185;0.12899464305443001;0.10269284496294243;0.4853677091751189;-0.031041346262781155;0.032685421699803874;0.2002170238032914;-0.10080626954605737;0.32572285183909627;-0.15050349864909374;0.25649222528339582;0.54192845327700412;0.18184295241113532;0.34992035441220504;0.1927114422503238;-0.044756884280348574;-0.17093546561748321;-0.15626015282654948;-0.88196689652783467;-0.73888635874067199;0.41232060210053501;-0.12953083152794909;0.1751549816577824;-0.11651588310710698;-0.15960986696094123;-0.15658655078091044;-1.0017142904092013;-0.45995842133734066;-0.73993352204545038;-0.4558826645872644;-0.72156553179957028;-0.60213093920954097;-0.53977006946165917;-0.40616021094348598;-0.38868344291382528;-0.57101482178642471;0.15684963817997449;0.58835952767115474;0.093310350396287239;-0.3411339751857681;-0.10752849688701524;0.42744764724043671;0.54701188122146915;-0.46277953861284959;0.5864276515235799;-0.41192454647231458;-0.36029240510349414;0.28083598903594142;0.32147094309308599;-0.25669900485810282;0.13600431819589998;-0.14998378219615877;0.073888145529184546;0.047796835396597293;-0.81596995605952627;-0.20728083975665429;0.30297541804750233;-0.036816536310211645;0.53602761087585526;0.02003839611854338;0.059896046750250571;0.71840400025919038;0.51329709801720669;-0.59096096254107433;0.15345447192325129;-0.16995040564140682;0.12316099800500109;0.06967482447492937;0.13751467934798861;0.70230319911796257;-0.29610327290686755;0.09339306585772833;-0.43760000250448661;-0.36781926733455561;0.25837555341908636;0.047223863659485332;-0.19471199917813919;0.51746140898123127;0.35325250734999225;-0.25202584627571278;0.49209705623669364;0.23769636482381976;0.31613237551643092;0.46582289054594705;0.19855556138235836;-0.21231597396172783;-0.16425775901734974;-0.18881831799120624;-0.3228244020921045;-0.17701558357343769;0.077436895796186761;-0.17752267537455538;-0.14614399497070862;-0.019050249791042639;-0.073708151277472378;-0.86085349381113085;-0.54017556010067325;-0.34902043636278124;-0.78072107482690689;-0.61283819385133498;-0.47217810879508915;-0.56283072625442632;0.094184384153088024;-0.15959463806691657;0.2554913533524934;0.4392491552821759;-0.46575866936344501;-0.22626316514634914;-0.0084214324144399333;0.40311943340188228;0.35179750630233902;0.45702281062654326;0.58547027628838977;0.54296867057000253;0.50664196206916889;0.26081622108918201;-0.013866499587951955;0.5121446688777862;0.016901319718480301;0.43951897611520785];
LW2_1 = [0.4248037508534469 0.64143163542990789 -0.14822538652365219 1.4358558557474732 0.29404244623111236 -0.023831029252852354 -0.96066300092372958 1.1192507987482898 2.2087421293384146 -0.21578674998500158;0.76546008751553107 -0.50840445026583803 0.36667861182648848 0.66637230810600223 -0.2909706418170821 0.91387985110552772 -0.00052613838994600105 -0.43325040676867715 1.195470654599136 -0.42593190078459886;-0.4728163683189322 -0.010700644831604156 -1.4391069915481369 0.73421440980339414 1.08580205317398 0.31298370290708027 -0.18213418884060217 -1.3305703774411393 0.84846373960120669 -0.77074276514119355;0.1760310193303074 0.48049373367284953 -1.205369511755467 0.80950322385129692 1.60135654125187 -0.85308666284151335 -0.22818706031096758 -0.50341546165477369 1.3763708771090151 -1.4131051797874252;0.47633589650028796 0.11269795063131102 -0.5095775477662936 0.6362795478691039 1.6562772446788023 0.037111262112493382 -0.78998493240616141 -0.87115535898125418 0.05722768658770877 -1.1769799702851347;0.024493823010573401 -0.066071433565331211 0.088814460248116622 1.1139354517431723 1.4490572103219908 0.06421083187518023 0.065319315999591385 -0.95942428114502765 0.49036051720874163 -0.55942579323491559;0.29943953995264239 -0.27027159422573599 0.8667593605893773 0.75696883021567851 0.73221054009733133 0.55504960053614572 1.3317450681343337 0.66589955490350961 0.26352228546194223 -0.0021612133821745649;1.2894370676457125 -0.35606909779258578 -1.029898513068376 0.45094453024452635 -0.37684824598841254 0.71842039940044722 1.4126031334282105 -1.4899815109726178 0.13317636447122913 -0.24996195245917285;0.22229782478380733 0.28328773609111635 1.488718314746353 0.054171124628981882 0.15892537789882838 0.41004711234331681 -1.3762859960521934 -0.74015212284843013 0.067358607328769235 0.13964399251742446;-0.50350906837198561 1.127780700602067 0.76049901476739135 -0.072848545652898777 0.38664836759306875 0.75205722421164301 -0.050487082053181767 -1.7757467667209346 1.492989796127254 0.77336549857417236;-0.67961557217647228 0.76470215335433256 0.53672887997200891 -0.20923675050274582 -0.018221787372161902 1.6965424144558374 -0.45212528622890474 -1.0839775248999901 1.0685598941601377 0.21151028293638202;0.66241196658763779 0.3703924295184402 0.63709518649287211 0.32285329592906337 -0.53920718314062088 0.20626945480849734 -1.3043432066932776 -1.5016390959966079 0.72170769743469709 -0.62774943330464084;-0.10300266158720325 1.1112830125536139 0.64077069190056823 -0.69439365563739197 0.5480759194136432 0.83739453364371719 -0.32937623751081385 -1.2722049414163916 0.19065921345065551 -0.12496536042638604;-0.11021142675460083 -0.62750278640450485 1.4521531485015933 -1.4846163269482742 0.082319364545507756 0.38148323449409521 -0.8916306037698567 0.64787720177015384 -0.6938886808178053 -0.14646500060089718;0.95044921062859045 -0.98127844051035806 1.5065151741125262 -0.52480604211593784 0.95897633244420288 -0.12680252274574699 -0.21706727745932142 1.0406158418180644 0.2077402134422528 -0.9116643982850281;0.74485839769857332 -1.0655271084687643 0.70843695661426609 -0.39183632286845554 0.17522582196962466 -0.71543141993981585 0.83075319478823983 -1.8740232620693296 1.4836611183927846 -0.40671130305618985;1.7569437920743836 -1.1330198283436481 -0.79173196354471842 -0.1780280909748837 -1.5601030849821449 -0.71478402337657443 -0.41858967311582418 -0.70099691742073422 0.7514581845523195 -0.45153255925736613;1.0407430775792188 -1.0561758143677111 0.88485960881357117 -0.57293402512049196 -0.20489802407387553 -0.73763178976832278 -0.58912426468400536 -0.8410074782840864 1.0004640935311906 -0.4165095401532275;1.6362891341199461 -0.54824561252348991 -0.5138256474452394 -0.48747834672711954 -0.10385451664213688 0.54710816424720488 -0.76334340545964474 -0.041433028576517004 0.29489513667263695 -0.98071896432127392;0.46860535645247658 -1.3483878512718981 1.1326246826983737 -0.89650914135318738 1.0325555407058291 1.1543050410049236 -0.29215915559399791 0.97291182937404497 -0.3367233863518706 0.29097149446027071;0.92874224738328071 -0.039172990853104217 -0.49407086192769328 -0.53365339718334459 0.85841080907828582 0.56330578531484543 0.82111555665606106 0.86705146463147154 0.006010039323663896 0.70488046712043428;-0.30711991358537621 -1.0914191335051919 0.16584220685803985 -0.63339963382164555 0.69433371264713417 0.83640346450300718 -1.0319406838522702 -0.49563970717253703 -1.6791736013818146 1.6801798639211314;0.61189722283738912 0.56516118811147698 -1.1793205282174619 -0.25213400045145523 0.24097754960287118 -0.18423311639301615 0.37851167556204279 -0.12531219093309498 -0.50054342636820559 1.4083854219962022;0.80966374433415123 1.1411737962054449 -1.2622669800188022 0.53738394727403471 0.42852911246621811 -1.0191308155526102 -0.62772029685450703 0.51974224303734529 -0.30717826026621586 0.96865803284434859;-0.70115120055852997 -0.67936306667363433 -0.56543297790903291 0.23617044740031512 0.95266511638422624 -0.45288522942994092 -0.067883218701095094 0.22058353665722646 -0.32363796376333004 1.0572293349042499;-0.63947392603738418 -1.0451234225607349 -0.20794170158222625 0.2683353772489705 0.76345969540713177 -1.3224947094811421 -0.89588990854438655 0.16623847029562422 -0.26888682976820932 0.12077182221295643;0.71886817081438115 1.3791245016138953 -1.0919195688179921 -0.53369882494009402 1.2560984653482739 -0.97521221268280045 -0.094556175612674015 -0.079760740754187986 -0.83754756309168887 -0.78598323299277928;-0.38388244420225942 0.16136227664897695 -1.3505059013410023 -0.84938445087282854 0.48622395137155472 -0.36498764402349304 -1.2243451521797828 -1.4963030840782419 -0.89150919684148056 -1.1676916251243705;-1.3807078223317262 -1.0817318869473724 -0.22884302417292157 -1.674469574199771 0.5968078622171421 -0.40743373270626065 -0.73048950585836869 -1.8484169089876379 0.12061497936399128 -1.3520124942440188;1.0701259434038199 0.28350373812938301 1.479291387917397 -1.4720858514921318 0.42416629555115659 -0.71558963010067955 -0.50096250910383944 -0.58599569496211634 0.055362682966358379 -0.84981023531346211;0.83855926319544993 0.41113910049454666 0.74572039323020944 -1.0743479771852058 -0.69441253894492627 -0.71107409634694396 -0.25169347520981022 -1.480765669097762 -0.22758094355742386 -0.96658498692555417;-0.066997422483987934 0.63257046823648688 0.76752858604913587 -0.97284564495128756 -0.52609764811141857 -0.89830288669104497 -0.87094115145872242 -1.4233460653025829 -0.2985361744085076 0.2918133910385099;-0.43026233774031852 0.17947463660319518 0.94783168998441658 0.1812997775971053 0.26211040974552241 0.22478736923798534 -0.36162875150855534 -0.078290198910598185 -0.15594995783156096 0.06583016317912127;0.2429300860781935 0.82685498683847913 0.061004666940946278 0.97688116809660253 -0.17916057651067985 0.21807341777620565 0.89308719464854225 -0.96656558341500842 0.22055565177701741 0.67044819022079694;0.53246331393308255 -0.14883406623131454 0.99049566696743097 1.1192733317749277 0.40583708588489742 -0.039577214467578892 -0.13354524869934115 -0.10810664175380846 -0.93342832024238176 0.19190053756662623;-0.32383357441124316 -1.4368945095195718 0.32407181200771878 1.0798104048947805 -0.058105122090762379 1.0436534053641524 -1.3847753105722003 -1.6212081559606808 -1.5665051133228103 0.24581993356795984;0.52701006240011117 -0.57013521703387127 1.0752819333942534 1.4510506340377884 0.25017850000591213 0.052875294284265073 -0.71207383314094719 0.677768814806611 -1.3774407965672677 0.5323880466317783;0.33411755295774281 -0.54442686095155179 0.26692114699153696 0.9736834821009448 0.68115515717819419 1.0775120065451442 -0.44667799801167474 -1.3464530021508896 -1.2581285960674133 -0.11256878341939158;-0.33066507929165173 -0.72253885410014895 0.24614150112755345 1.1940819727623386 0.54618845046924791 0.89652062210446304 -0.072452763940267118 -1.6728526580872174 -0.80761746434339421 0.7180606040505606;0.11279176448564038 -1.5642820185077304 0.75987113116016891 1.4347521998752257 0.3594495823645994 0.70650896827010001 -1.087673462132221 -0.079756814877028792 -1.054908931397011 0.26087800574090486;0.32751373568451636 -0.21829396994607653 -0.49558731426256863 1.5799797862268976 0.14781989109071053 0.26275390643875807 0.059987248267040605 -1.3537907042732338 0.40293426125819853 0.019149965386350387;0.42521170783822493 -1.1765947433629234 0.16991895527029593 1.0255466088038032 -0.33114704697272912 0.86997372998559808 -0.38515840584275596 -1.0522226019234528 -0.63637915083274144 0.45106971146373415;-0.075419384206994566 -1.6184666875125142 0.54217533005041574 1.3823059183633988 0.44172978947464475 0.75061790718892629 -1.8390413747958076 -1.1292286290787836 -0.7151397654346433 0.65946463652342435;0.96895072715964048 0.12504595051700568 -0.84145484010122584 -0.41556102196905964 -0.96190947883155709 0.60666371243737749 -0.22847455625191257 -1.3634315552272891 -0.84116331299879932 -0.99431526098253398;0.39135135297927603 0.6118251818822501 -0.94959408573893855 0.15259126341400864 -0.0033891487191405889 0.068154030291299239 -0.044505741799345855 -0.72913852166722171 -0.75152805529728517 -0.64217987564996259;-0.26686924940034368 0.098440536758053906 0.41006065832959765 -0.20440715829709852 -0.44047961310058603 0.32761445004669054 -0.0776553419108231 -0.64069887347162857 -1.0128209861482924 0.51262824551155806;0.30923790524346018 0.81831144960318725 0.029109511909365726 -0.43015762366976018 -0.10351248044380398 -0.78653225598144194 -0.63092383071720959 -0.55263163148675964 0.24923824906430023 -0.17688621199268673;0.24821807979613783 0.60194232209803067 0.25977034989145004 -0.92458414999710803 0.070334950869801544 -0.012970102008586198 -0.63706548615824965 -0.62339814553961226 0.19405717565913605 -0.67910593885358639;-0.77070035477085153 0.49760878368944761 -0.21022649138790456 0.057263888375583438 0.33168240993009568 0.58735326807135824 0.30845643090748986 1.2354439665895163 -0.33647892351733311 0.60413457630217271;0.28397751446608943 0.44753911845405686 -0.52652608239952881 0.33956605008447127 0.18634005747250482 -0.0078336917775345804 0.14139454354732139 1.5153186114345347 0.59758793515134967 -0.74541885334637648;-0.97068577165225345 0.51062563160339591 0.47995009130387267 -0.20355221525828371 0.22091776355997297 0.35304061188292074 -1.7803405936477943 -0.22254206579681002 -0.26820495744753542 -0.14542476577185715;0.93273417783888246 -0.094729330188045371 0.6548054303339379 0.15478217728797516 0.40214253315890031 -0.27311721371297987 0.36807557646583916 1.2516881934442683 0.18745705106381447 -0.032484626154407295;0.93786885624885952 -0.34176957067101188 -0.48854051074093047 0.47908608404127589 -0.75910459514896911 0.1707136224749235 -0.33237744384200296 -0.47006716678141031 0.14200456468823658 -0.60783351076160219;-0.011506973368688372 0.46576036653764163 -0.053064300029021072 -0.19315002050817942 0.70258265189856173 -0.44868089270311556 -0.085807406163728228 0.39602407088612246 -0.49662418589771173 0.86300339006046378;0.47223932910905109 -0.023729370438191719 0.36496447726964409 0.11086281062377856 -0.75100771165922409 0.35774719683709094 0.41691737670611012 0.54037655676383844 -0.5806775458607889 0.54717350009701904;0.63613072021837214 -0.62354113474003603 0.62368864168843519 -0.12829979779385994 -0.77484108686795916 0.45950463946643383 -0.16640331481604506 -0.55917094375660636 -0.20017431291772828 -0.22123131112819194;-0.52083790997616863 -0.20058447751874506 0.44034121368911294 0.24737899820176701 -0.66892338864920253 0.66953546897802252 -1.1584946685272151 -0.71541163565812016 -0.7083158212641103 1.1320148740734373;-0.40868770770775592 0.43574439681936689 -0.41745528769551088 -0.21777173408427503 -0.48773305159911151 0.042728729813427041 -1.0093384455125225 -0.57518510859029348 -0.44705061102583887 -0.22155002760437675;-0.22164060843582756 0.52235036116545053 -1.1116120197282979 0.68818589734282865 -0.1765598244224249 0.058575248018035785 0.040000326196581393 1.64928811668165 -0.17477698123097166 -0.95027453204028556;-1.0776748189199141 0.54642556231860162 0.48573777375205585 -0.1594556003625211 -0.09344232056237628 -0.18693043137324433 -0.75617054804924355 0.67474189301287413 -0.25036801177564344 -0.34295164450298743;-1.3880222280032577 1.3205389051176042 -1.2916195429057065 -0.25029828070689047 -0.59881460521570595 0.74364092299185458 0.67368737873524775 -0.2410877897419354 -0.39746447623530434 0.62716598310018934;-1.250665468385268 0.39960052942586149 -0.35496293534142476 0.2763519826462143 -0.91092612262619643 -0.2523191256067242 -1.3793010665256373 -0.04735798342917158 -0.34717195330883832 0.65506126434118117;-1.5617602862105766 0.089503920110013624 -0.1739325352284653 -0.087403326973386125 -0.65216065694069347 0.30898874490135453 -0.76145560563097603 -0.10733495422600586 -0.58816705675928027 0.66834627839632466;-1.1189144468570746 -0.50963266652680583 0.14532685317734764 -0.25064407448493753 -0.73823002129072579 0.82371666223136586 -0.09055042743600264 -0.51710280842334355 -0.072123047741631696 -1.0994672244858019;-1.1929531861590292 -0.79072833078154847 0.29051293694538827 0.067446944650952245 -0.8450336588904952 0.88362092507289236 -1.196014783205684 -0.49111632883624445 -0.070492075946571447 -0.19169780271059056;-0.70013008897066953 -0.44311060197488189 1.5561553147365197 0.13663833401013037 0.27761505665375386 -0.18973770099469411 0.32967140107363169 0.43197432090245091 1.0641225157621359 -0.9361875946295285;0.07954349590343536 -0.08127667215969292 -0.10690901233690095 0.17904563933491024 -0.16776816652834461 0.82108662486207673 0.50428253008480906 0.98637095731686864 0.10925203523368343 -0.99679813344935242;0.2822108214860341 0.41014765028874894 0.11360127504964901 -0.26685972691901694 -0.8078695583692429 0.72072063507995865 0.93515512266056122 -1.004676479032754 0.65753082809744201 -0.15774032808936289;-0.12755399877764823 0.9707348949884621 -0.6564464767979753 -0.17236296021739811 -0.41541252750515228 0.81162891914951607 0.23473089471245143 -0.6726348628113481 -0.18977264799888255 0.41007124455323496;0.43438617605298246 0.38908382532920655 -0.34862027428030784 0.20752884911353639 -0.33925181295654078 0.24623587541550326 -0.81686869394467132 0.10002773467686388 -0.013710040629963061 -0.72969207270390979;0.62692420724355136 -0.61612906181411975 1.0188251213538675 0.28289634102631267 -0.45151199256752311 0.067037078468146299 -0.070983986849369629 0.70557225070459417 -0.30986509861620637 0.27335322677304091;1.4192146595386899 0.6798472852535864 -0.3683583313381375 1.2972665597000816 -1.2785389913961092 -0.11500947713461673 -0.44028891818921023 -0.3593166433338319 -0.29249863652100239 0.46313948327862242;-0.08900321661141905 -0.34333563788754029 -1.0847553450569434 1.0137257117591456 -0.14224722168266404 0.50092629988373494 0.76833421251904654 0.87545738236914461 -0.33218581062127561 -0.79725847378908699;0.5879424523201856 0.55397421697289706 -0.42538688351158904 0.35457136056948335 0.3448492498168394 0.072986515291370846 -0.47381150876749023 -0.6331662640561051 -0.42946251985438794 -0.53848083989116446;-0.38658367524041853 -0.082535336393550707 -0.9369493896734461 0.50121806781845712 -0.16722300051297212 1.1324771968579075 0.42966468114710088 -0.89261497930853229 -0.047839700382481781 -0.17056568876455136;0.59578652760522843 -0.39546451322089199 -0.51296040868105608 0.84649432717699624 0.26576584857346208 -0.049405969739909905 -0.021895914851054264 0.61839101753808001 0.2789572658687165 0.033315148194582943;-0.22711579157345044 -1.0912796818724044 0.31534850415243221 0.84418412643049134 0.72743355147816102 -0.086619553075534705 -0.6277119596229972 0.40496372580788831 0.22048073194541892 0.052467861947723661;-0.13161052038889987 -0.58864620463818196 -0.15065050748766429 0.50558727324356256 0.51268079274689426 0.7337366321054769 -0.10730524647195219 0.22645191936972342 1.1145690952965617 -0.32812697994248918;0.58078266634844289 0.67937644453433921 -0.58337354485437198 0.36547006394232417 0.33668852756146256 0.16190654546774114 0.49602503411808258 -0.13077861739316998 0.9057647447914694 0.84979407158379106;-0.25743934303198618 -0.75855711718519236 -0.81262660399541131 -0.63790560823411546 -0.2919929074727754 0.59263775042024469 0.69355638092648109 -1.0581999723666908 -0.1676435076796419 -0.45654961402646099;-0.38456664286115722 -0.23986719562438202 -0.54127011536356651 -0.52731230194075207 0.14583462703520361 -0.66470755951639959 -0.31383385452485568 0.47257794813399923 -0.3346737478572025 -0.00074455982414822763;-0.65336365965111654 -0.80924494157757998 -0.86207088958460609 0.61760580576380297 -0.58916328414269381 -0.14069188838518132 -0.33766761925691285 0.4622541300549356 0.91213169648355619 -0.034678774042024643;0.91384791269545651 -0.72420727860920886 -0.47463613874224786 -0.0090510923141386146 -0.28750219249426473 -0.81435890284148393 -0.13408932579594221 -0.13685060034367824 -0.44133169310927184 -0.9473645196374062;0.54636572667181027 -0.9891465779952433 0.6986156349628948 0.11632194493148085 -0.075689176579358933 0.14743483997328888 0.52033521506717484 0.74411898910978358 0.12698251073898845 0.26739884874956016;0.90144217562960938 0.11915639272998102 -0.37053407975602309 0.41394005670991452 -0.24689557348704838 0.21459755577915421 0.9070976566315867 -0.20610516883015673 0.73938655814676246 -0.3668380998459998;0.71796736915681469 -0.8088480837809876 -0.53336475949934603 -0.30062287248624964 0.42942612119393209 0.77779232179064306 0.84909119977635061 -0.13407819017571132 -0.94208941408004609 -0.43408258566192559;-0.60774604981756686 0.36142129814128154 0.21591764326455937 -0.93899460511159483 0.25494143984759082 -1.0657954865839767 1.3084349914677738 0.83017932382060833 -1.6923463792160054 1.1880409607313029;-0.60942232475714453 -0.25081163457689587 0.49389168673589245 -0.97936910994501924 0.16522507507907083 -0.98892328039888033 0.99919348254127316 0.48311214235385724 -1.2844441191052518 0.70125065736550996;0.096246812535013049 -0.32841866156989685 0.52428707715727096 -0.58105108610633371 -0.94549355579471306 1.0710509525847918 -0.70686065002466858 1.3343695812310354 -1.0227830219236509 0.26947369459660675;0.9953062847050842 0.11271294501625301 0.57596965149536561 -0.21823289366607929 -1.8755329506810612 -0.17661952150048921 0.71711175796161353 0.11042626361665331 -0.068087242236544387 0.77730789947316903;0.75780102655429138 -0.12411205355260665 0.1742410230396613 -1.1790812582539694 -1.8571574938693942 0.15591599730111144 1.3941685493088247 0.35338914667649718 -0.60700816404938096 0.1593772314385013;-0.47831369210583152 0.21085196283243002 -1.1272155758070799 -0.80700136248762311 -1.5356154547087475 0.35364775248960223 0.92122979152811835 -1.3901700726356065 0.1404607099907792 0.88321764209906983;-0.89887699747813121 0.39664296595705745 -0.53662468268873953 -0.91445240951636331 0.55963510201815925 0.19293313804433521 0.87528974937466042 0.19998901130376978 -0.026157994761625655 0.62326155940863937;-0.46743535616869974 1.150916452681501 -0.36284124705050408 -0.4118018372599242 -0.15668394077136588 -1.4690507793640126 -1.1195478751938857 1.0940307044689468 -0.074169932297358243 -0.05384464070473749;-0.56106274757702956 -1.5342427185523522 -0.49130797280879251 0.19516859176616411 0.26236335275502781 -1.3241748490292404 0.51517568569456662 1.1178998718440234 -0.49233387783643634 0.4837614904895427;0.462707789763877 -0.93815987253863575 -0.68355353340402769 0.3555755402686126 -0.47431893546923987 -1.4874501552824253 -0.071969438694190507 0.56770866214552584 -1.1979464973926577 0.055653685380532392;-0.30263398872406561 -1.4887913757343894 -0.11788762455586638 -0.18058318508425952 -0.34109849486160537 -1.3175135638579387 0.71198442275723117 0.70994456285488272 -0.99539534057694745 0.27579208100846164;0.40176862728544821 -1.3199304618388366 -0.6784749881506702 0.3086463996319469 0.061194709221961796 -1.4708649083907792 1.4385105532962805 0.60533465373669448 -0.056845989775527017 -0.4108079299684505;-0.37515047169937826 -1.8015813618736503 0.24729247009122324 0.37295873324029427 0.6256908995851832 -0.34469992281210349 0.12335751833859901 1.1759128004095512 0.092405535499771152 -0.12264894311867985;-0.25254328206946997 -0.39047392289462796 -0.51669989877272493 1.3235967935010973 -0.15515918327592171 -0.75933343978296908 1.2226025912662726 -0.74583759671350403 0.62936379890181793 0.54179311480514847;-0.47111892223907681 -0.14155147227471521 -0.25134207740425812 0.75514977965613217 -0.53206459248785076 -0.16526114278880927 -0.052431879504977963 0.23503416122852733 -0.94545382969845293 0.89298968844541071;-1.2185163264638406 0.23014511634556917 0.45031908849955571 -0.056752222404885422 0.026675901709662386 0.53064619319375228 0.24192941054878919 -0.71708122771103644 -1.136509073148994 0.84778906407685228;-0.93323426524356679 0.41059058033257761 1.3102513933955009 0.46351913656887606 1.0566418437647902 -0.67906009951309831 0.53852748616816193 0.14513093983538888 -0.13664045615567855 -0.035930082366009169;0.56536743125658218 0.44012168983544314 0.85956514470360956 1.0603312332247905 0.9200382731199872 -0.99892211077549597 1.4544274891440674 1.9022524563970507 -0.1744489258022924 -0.47679139611488908;-0.5789696940916399 0.031280064268031926 0.18392740283772571 1.1777382960383522 0.19673407332808385 -1.0107400433243314 0.047356766068248124 -0.84616230838089213 -0.99221036429190612 -0.45874751349485238;-0.4251746570683852 0.52579541790304296 0.40689729144282011 1.3322460254422721 -0.51235019532906434 -1.4682575153673221 -0.18568679002661836 -0.11147472723469341 -0.26389921266410882 -0.0080091608776461376;0.093841196282604372 1.0013583999358961 0.53129440859046628 0.78533826048184163 -0.52166722442715929 -1.3063370813521504 1.0313741575799331 -0.19885128676396391 0.86540855280252404 -0.88941767108561032;-0.63524027679924555 -0.13808658773608498 1.0006425560205285 0.46073311202187428 -0.23747234494934208 0.15951956122263561 0.34866430338608473 0.85088763859323002 -0.098534039700951676 -0.85516889867897716;0.45482821964981895 1.0341321801537011 0.49837571522471813 0.099941792777442584 -0.88092514395983723 -0.1519839674129414 -0.30701382415290235 1.0489198414608776 -0.16588961208542569 -1.2756265476635535;0.055390357169731438 0.4379785809373245 1.153837574231058 -0.5266376259082598 -0.77606842835127643 0.49655064600006144 0.63293480263804258 -0.12577807267458463 -0.22779379911017344 -0.90409776366567862;-0.16326643897261739 0.50761027636209 1.070923310314301 -0.12457138351699445 -0.43786218255640597 0.8341933434576162 -0.50457131245922515 0.91655751539604979 -0.43330242053232887 -0.71607982226284017;0.21216216103820001 -0.26422845991439459 1.6338919134985823 -0.7072556794302236 -1.0195667606998446 0.71342317794909771 0.57730999413231243 -0.32579200276634473 0.15976854258145887 -0.053838533560743751;0.085362805148098297 -0.50957138258170964 0.71236754257874524 -0.0078572332517828358 -1.6357745043954288 0.88186200979795903 1.0391572023667675 -0.12890580127580664 0.53601979658837995 0.26508356448278797;0.32884019866000258 0.066939544975730292 0.91572600499659507 0.66229930125739667 -1.1783611342025426 0.91646113690547504 -0.19333618467473349 1.0797401299550597 0.0002833630513576213 1.3528878593341014;0.78290769644161051 0.039489560544518909 0.14292190372333172 0.85234557894652208 -1.2018128319618966 0.91783961285980753 -0.88148105261681664 0.090448596682793148 -0.10738907311090892 1.2490808069584594;0.0088264265639049766 -0.63414693252775267 -1.3542283789944602 1.5965379656517857 -1.0665276326565154 -0.70934919002391372 0.48354124906500134 -0.22709975117458192 0.68179795602962556 0.11478401448515566;-0.18792819691928342 -1.1262041380189802 -0.40844010672157377 0.72250323199856337 0.50539574375908147 0.32819238777999282 -0.4968423022133861 1.7631215010579799 -0.51051190714944672 0.2173316104377605;-0.55861622500099029 -0.58891538518368614 -1.1465366224814724 0.7315254347047343 -0.37553179524946401 0.24960719804137843 -0.84730167689914326 -1.3670378727108541 0.67147609284188992 0.46623831948998296;-0.66864902215388666 -0.32606247205165401 -0.20795892342918393 -0.25891067263249629 -0.089404514787580075 -0.67908478558991603 -0.71607631295783414 1.5204091081180309 0.39143806194025921 0.56898745612480506;-0.49837672482109413 0.15012452991658432 -0.43086002176517901 -1.1422793561075915 -0.27979558319145537 -1.0967323556545565 -1.2552576189082942 0.46697798674142377 0.2922388163533331 -0.35725702596128517;-1.2229829516072683 -0.49851944550972543 0.050291284836471148 -1.1300675937475448 -0.32915601381081044 -1.1380779262216929 -0.15134891336447026 0.22081843005426599 1.3162694395218635 -0.051283112156582517;-0.7654247704090209 0.55405140165464317 0.13316193618354755 -1.5727892123498575 0.4150963480459674 -0.82466550661747151 -0.14055058416306399 1.0200563601664296 0.36016564127095363 -0.31863146887220667;-0.10131983577840814 1.4482461224279202 -0.54906435074587256 -1.4892365713564344 0.43818813053140671 -0.091881715260409669 1.1199770640815232 1.9439809304106184 1.0112486954653952 -0.4216245133664277;-0.13146163871629268 0.49990113633459549 -0.035170387368103073 -1.4802506942431475 -0.8051218977352389 -1.0437276443731043 0.27337968310326388 0.86032067616659424 0.60471858174518212 -0.38002231739075748;0.25044014570314921 0.17231030123654112 0.54904549931815305 -2.1355500570412298 -0.75416251211061602 -0.2942466134917715 0.45531688244420088 1.9430491596792441 -0.12515966528349332 -0.89230992273711296;-0.20423636333740308 0.48924858439442431 -0.41768134993007583 -1.5922767272255469 -0.90689338763721805 -0.41264396430145134 -0.33510002288615814 1.0112823959516797 0.41961628323597344 -1.2974666502742691;-0.51491451757071083 0.93869109504440551 0.27477015966070845 -1.5741893029107197 0.069181419267869526 -0.11804909936667318 -0.11592811913416179 1.5205615883383834 0.71416783058954725 -0.71577854755334214;-0.47641846948201511 0.17659189619008142 0.32193210021032187 -1.3236857655694263 0.044426331006807318 -0.62126672651410764 0.54494241025953427 1.389251323189002 0.51464770107146229 -1.3816350599919178;-0.84217827797944966 0.89025220065937705 0.2076071130220184 -1.4378527229275879 -0.29466285142809251 -0.84406937005342986 0.10950114905046038 0.29946520686728317 0.94097355632558222 -0.62868754563116003];

% Output 1
y1_step1.ymin = -1;
y1_step1.gain = [3.42436816295737;7.21480544131604;4.79942693409742;4.90184049079755;5.76835879743716;6.06732060726932;4.87396121883657;2.66336633663366;5.85856401384083;4.48598130841122;6.16950449588674;7.97438087105039;10.7903817914831;5.568;4.15489749430524;3.2;3.2029702970297;3.12396694214876;3.15789473684211;3.18181818181818;4.45421352417117;3.49642492339122;3.24675324675325;3.27027027027027;4.06644518272425;5.74788732394366;5.19331742243437;3.78548427049789;3.54421768707483;3.75290059579806;5.13883677298311;4.31470689064107;7.31327325492592;7.94470461095101;9.94960549758208;8.32033083715212;8.68693199623943;7.66938793919985;8.82093786011878;8.11735740664752;7.96851252874011;8.78776383227734;8.85688358828105;5.43618513323983;10.6849315068493;18.8755020080321;20.1818499737716;19.3333333333333;13.3475935828877;13.887323943662;5.42011834319527;16.0349344978166;24.0008335069806;33.7638888888889;28.4170854271357;27.9715519431039;20.1156069364162;9.99309324124322;5.83333333333333;5.625;4.96969696969697;5.14285714285714;5.35;10.5865580448065;6.234375;5.69230769230769;5.75652173913044;8.49375;13.8806333739342;10.9251844046365;6.34327449786975;5.71604938271605;6.92134831460674;11.6965517241379;11.5393992163692;23.9675036927622;23.460894251242;21.9595882577202;28.1658031088083;23.9785138764548;24.9911231184871;25.1907403864549;26.6897274633124;24.6125290023202;21.7464454976303;23.2294191919192;5.53367875647668;6.62868769074263;4.41345480028031;5.25;5.58333333333333;5.6125;5.08333333333333;5.02803738317757;7.12784334410233;5;6.1335193051417;8.40337909186906;10.3154172560113;6.91390728476821;6.59259259259259;6.43010752688172;6.53535353535354;6.09677419354839;6.10169491525424;6.14035087719298;6.33962264150943;6.38461538461538;6.44897959183673;6.66666666666667;6.72;7.33333333333333;8.03076923076923;7.80689655172414;7.89393939393939;7.23456790123457;6.10526315789474;6.11881188118812;7.68539325842696;8.84388866478418;9.06976744186046;8.44946492271106;9.42226890756303;8.229956122856;9.16692426584235;8.33604862195585;7.89168278529981;8.59138708062093;8.81346749226006];
y1_step1.xoffset = [0.327715355805243;0.325966850828729;0.24;0.294117647058824;0.302631578947368;0.302895322939866;0.236714975845411;0.24907063197026;0.253968253968254;0.260416666666667;0.301724137931034;0.335403726708075;0.3710407239819;0.390804597701149;0.37280701754386;0.375;0.375579598145286;0.35978835978836;0.366666666666667;0.371428571428571;0.377073906485671;0.380368098159509;0.384;0.388429752066116;0.397058823529412;0.431266846361186;0.443014705882353;0.434628975265018;0.435700575815739;0.398897058823529;0.383534136546185;0.364055299539171;0.365413533834587;0.375478927203065;0.367952522255193;0.373660030627871;0.368253968253968;0.36517719568567;0.362670713201821;0.365079365079365;0.367762128325509;0.371248025276461;0.373056994818653;0.0882352941176471;0.216666666666667;0.234042553191489;0.255172413793103;0.275862068965517;0.256410256410256;0.235294117647059;0;0.25;0.284615384615385;0.293706293706294;0.298850574712644;0.293233082706767;0.25;0.145833333333333;0;0;0;0;0;0.173913043478261;0.0476190476190476;0;0;0.111111111111111;0.220779220779221;0.171875;0.037037037037037;0;0.0681818181818182;0.1875;0.172413793103448;0.263157894736842;0.260355029585799;0.2578125;0.277777777777778;0.266129032258065;0.269736842105263;0.271523178807947;0.275862068965517;0.267156862745098;0.258145363408521;0.265446224256293;0;0.0555555555555556;0.0149253731343284;0;0;0;0;0;0.118881118881119;0.00625;0.0503597122302158;0.109826589595376;0.112299465240642;0;0;0;0;0;0;0;0;0;0;0;0;0;0;0;0;0;0;0;0.0555555555555556;0.0899470899470899;0.1;0.087719298245614;0.115942028985507;0.083969465648855;0.111111111111111;0.089171974522293;0.075;0.0930232558139535;0.096045197740113];

% ===== SIMULATION ========

% Format Input Arguments
isCellX = iscell(X);
if ~isCellX
    X = {X};
end

% Dimensions
TS = size(X,2); % timesteps
if ~isempty(X)
    Q = size(X{1},2); % samples/series
else
    Q = 0;
end

% Allocate Outputs
Y = cell(1,TS);

% Time loop
for ts=1:TS
    
    % Input 1
    Xp1 = mapminmax_apply(X{1,ts},x1_step1);
    
    % Layer 1
    a1 = tansig_apply(repmat(b1,1,Q) + IW1_1*Xp1);
    
    % Layer 2
    a2 = repmat(b2,1,Q) + LW2_1*a1;
    
    % Output 1
    Y{1,ts} = mapminmax_reverse(a2,y1_step1);
end

% Final Delay States
Xf = cell(1,0);
Af = cell(2,0);

% Format Output Arguments
if ~isCellX
    Y = cell2mat(Y);
end
end

% ===== MODULE FUNCTIONS ========

% Map Minimum and Maximum Input Processing Function
function y = mapminmax_apply(x,settings)
y = bsxfun(@minus,x,settings.xoffset);
y = bsxfun(@times,y,settings.gain);
y = bsxfun(@plus,y,settings.ymin);
end

% Sigmoid Symmetric Transfer Function
function a = tansig_apply(n,~)
a = 2 ./ (1 + exp(-2*n)) - 1;
end

% Map Minimum and Maximum Output Reverse-Processing Function
function x = mapminmax_reverse(y,settings)
x = bsxfun(@minus,y,settings.ymin);
x = bsxfun(@rdivide,x,settings.gain);
x = bsxfun(@plus,x,settings.xoffset);
end
